{
    "ActivationFunction": "tanh",
    "Bias": [
        [
            [
                -5.952280670992004e+25,
                -5.95228067099206e+25
            ]
        ],
        [
            [
                -1836647818332.1262,
                -1836647842349.8691,
                -1836647746204.9226,
                1836647644146.0022
            ]
        ],
        [
            [
                263352.15861370094,
                263461.3888733261,
                -263525.54581787187,
                263351.45341409626,
                263516.1044532015,
                263446.16271575645
            ]
        ],
        [
            [
                -121.7135153930581,
                -122.98659240716856,
                122.90936485970633,
                -122.76683628676709
            ]
        ],
        [
            [
                -0.47818988367230786
            ]
        ]
    ],
    "FirstLayer#Inputs": 48,
    "Initialized": true,
    "LearningRatio": 0.08,
    "Topology": [
        2,
        4,
        6,
        4,
        1
    ],
    "TrainingBalance": "0.1663TE",
    "Weights": [
        [
            [
                -0.7536739280226306,
                -0.49019756523370495
            ],
            [
                -7.162550199051258e+26,
                -7.162550199051333e+26
            ],
            [
                -1.1375377921087675e+27,
                -1.1375377921087771e+27
            ],
            [
                -1.1375377921087675e+27,
                -1.1375377921087771e+27
            ],
            [
                -9.057208066583549e+26,
                -9.057208066583623e+26
            ],
            [
                -3.7199688565516184e+26,
                -3.71996885655165e+26
            ],
            [
                -6.530997576540482e+26,
                -6.53099757654054e+26
            ],
            [
                -8.918514309557571e+26,
                -8.918514309557659e+26
            ],
            [
                -1.1244114879955548e+26,
                -1.1244114879955654e+26
            ],
            [
                -1.1244114879955548e+26,
                -1.1244114879955654e+26
            ],
            [
                -4.636339709008185e+26,
                -4.6363397090082245e+26
            ],
            [
                -9.619413810581345e+26,
                -9.619413810581425e+26
            ],
            [
                -8.286961687046817e+26,
                -8.286961687046893e+26
            ],
            [
                -1.686617231993334e+26,
                -1.686617231993349e+26
            ],
            [
                -0.2503926559421845,
                -0.7599199967886885
            ],
            [
                -0.9277973753934687,
                -0.8212519042037671
            ],
            [
                -2.8803755985018798e+26,
                -2.880375598501904e+26
            ],
            [
                -9.619413810581345e+26,
                -9.619413810581425e+26
            ],
            [
                -5.622057439977774e+25,
                -5.622057439977827e+25
            ],
            [
                -0.4753339607048035,
                0.24185460490114696
            ],
            [
                0.33359846869966714,
                0.09828459921208621
            ],
            [
                -6.315526225107691e+25,
                -6.315526225107753e+25
            ],
            [
                -9.550066932068355e+26,
                -9.550066932068434e+26
            ],
            [
                -8.425655444072802e+26,
                -8.425655444072879e+26
            ],
            [
                -0.9339356560036955,
                -0.2541268555812295
            ],
            [
                -0.5575552646744288,
                0.20330983700810856
            ],
            [
                -1.894657867532302e+26,
                -1.8946578675323174e+26
            ],
            [
                -1.0813172177089905e+27,
                -1.0813172177090003e+27
            ],
            [
                -8.286961687046817e+26,
                -8.286961687046893e+26
            ],
            [
                -1.1937583665085444e+26,
                -1.193758366508554e+26
            ],
            [
                -0.1699990832191498,
                0.10490260977078614
            ],
            [
                -6.315526225107691e+25,
                -6.315526225107753e+25
            ],
            [
                -5.622057439977773e+26,
                -5.6220574399778195e+26
            ],
            [
                -3.935440207984433e+26,
                -3.9354402079844666e+26
            ],
            [
                -4.983074101573161e+26,
                -4.983074101573201e+26
            ],
            [
                -3.157763112553845e+26,
                -3.157763112553874e+26
            ],
            [
                -3.789315735064604e+26,
                -3.7893157350646355e+26
            ],
            [
                -6.954509563512289e+26,
                -6.954509563512353e+26
            ],
            [
                -4.497645951982219e+26,
                -4.497645951982262e+26
            ],
            [
                -5.622057439977774e+25,
                -5.622057439977827e+25
            ],
            [
                -0.6426229415351659,
                -0.4100396300285982
            ],
            [
                -6.31552622510769e+26,
                -6.315526225107748e+26
            ],
            [
                -4.497645951982219e+26,
                -4.497645951982262e+26
            ],
            [
                -1.249978940908321e+27,
                -1.2499789409083313e+27
            ],
            [
                -1.249978940908321e+27,
                -1.2499789409083313e+27
            ],
            [
                -1.249978940908321e+27,
                -1.2499789409083313e+27
            ],
            [
                -1.249978940908321e+27,
                -1.2499789409083313e+27
            ],
            [
                -1.0813172177089905e+27,
                -1.0813172177090003e+27
            ]
        ],
        [
            [
                38569604184955.336,
                38569604689354.03,
                38569602670287.47,
                -38569600527053.29
            ],
            [
                38569604184954.555,
                38569604689354.02,
                38569602670287.336,
                -38569600527054.9
            ]
        ],
        [
            [
                -5530393.766052763,
                -5532681.534174931,
                5534021.252686408,
                -5530387.139580062,
                -5533830.747380215,
                -5532354.716621025
            ],
            [
                -5530393.75789101,
                -5532681.615935729,
                5534020.623221667,
                -5530387.499935947,
                -5533830.795503648,
                -5532355.081395202
            ],
            [
                -5530394.754713728,
                -5532680.424683892,
                5534021.208490112,
                -5530387.745344346,
                -5533830.572921957,
                -5532353.799127161
            ],
            [
                5530393.91151801,
                5532680.087639973,
                -5534020.929843572,
                5530386.247575702,
                5533831.112610086,
                5532355.292785042
            ]
        ],
        [
            [
                -2566.416049095908,
                -2565.6460906170228,
                2565.316300473259,
                -2565.5077045930125
            ],
            [
                -2566.1954676023597,
                -2566.7118565664005,
                2566.5625725978716,
                -2565.538355740821
            ],
            [
                2566.8270594402456,
                2567.077086533862,
                -2566.125533688613,
                2566.2219320204067
            ],
            [
                -2565.4971055301507,
                -2565.5782829365503,
                2565.9909554358624,
                -2565.8132797386893
            ],
            [
                -2566.1983136327203,
                -2566.5319403066974,
                2566.9703360929375,
                -2566.374337958277
            ],
            [
                -2566.920670976656,
                -2567.007428541763,
                2565.3436216190944,
                -2565.4339721228307
            ]
        ],
        [
            [
                0.4613728000152019
            ],
            [
                -0.1175254064923586
            ],
            [
                0.2198055510353108
            ],
            [
                0.46615428365976624
            ]
        ]
    ]
}