{
    "ActivationFunction": "tanh",
    "Bias": [
        [
            [
                -0.6407312713636802,
                -0.2319674106008232,
                -0.5309784799181453,
                -0.930405674360214,
                -0.23785692270180267
            ]
        ],
        [
            [
                0.9161991021992355,
                -0.48330488370567687,
                0.16573750804645418,
                0.3168041222728167
            ]
        ],
        [
            [
                -0.38618840191724774,
                0.517407013568981,
                0.48787014679872276
            ]
        ],
        [
            [
                0.18075638735479405,
                0.768691564182086
            ]
        ],
        [
            [
                -0.22949216285112084
            ]
        ]
    ],
    "FirstLayer#Inputs": 48,
    "Initialized": true,
    "LearningRatio": 0.08,
    "Topology": [
        5,
        4,
        3,
        2,
        1
    ],
    "TrainingBalance": "0.0TE",
    "Weights": [
        [
            [
                0.7868207587013398,
                0.8358068721300833,
                -0.9361419386382759,
                -0.18886742585849858,
                0.3822691664673368
            ],
            [
                -0.5815125495684942,
                -0.635988186319689,
                1.2302693645212561,
                -0.08802309148017969,
                0.4586038161012588
            ],
            [
                0.3806401851358599,
                -0.19952568414077518,
                0.7054598335129639,
                0.22156565196009598,
                -0.09636395504906853
            ],
            [
                0.5761006939037588,
                -0.685315974848067,
                -0.5258497169344032,
                0.8394727995665889,
                0.6042802660980087
            ],
            [
                -0.40132149929660793,
                0.13576046683964854,
                0.013329893106876168,
                0.8729098789420282,
                -0.5862615402866985
            ],
            [
                -0.6555801283506153,
                -0.7354024319774662,
                -0.0961137634201587,
                1.0468163301943487,
                -0.0641430593590307
            ],
            [
                -1.0229623362297122,
                -0.09644488630797966,
                -0.07271472943819937,
                0.11980443593247075,
                0.6248589425532834
            ],
            [
                -0.04407214257707017,
                0.10281674160643149,
                -0.85500543512284,
                -0.6992482190012195,
                -0.12176238535265643
            ],
            [
                -0.1752320837797237,
                0.4164473534468021,
                0.435261036479419,
                0.3587463929061768,
                0.8359088043823525
            ],
            [
                0.21622590698164895,
                -0.7285860534314926,
                0.1783048862517427,
                -0.1984934561519852,
                -0.025425216940062924
            ],
            [
                -0.20852056027130314,
                -0.6784154173388394,
                0.711616281063416,
                -0.602747497117702,
                0.2483183134477854
            ],
            [
                -0.038614090020259555,
                0.1131479109089187,
                0.921524394320258,
                0.928933793583052,
                -0.1580584662533338
            ],
            [
                0.768484992672045,
                0.481465865495795,
                -0.7786025315621024,
                0.11975905746899797,
                0.42071848722657157
            ],
            [
                0.028574349743401426,
                -0.6789008921564291,
                -0.5330677573066696,
                0.2789399733645511,
                0.4358803701352771
            ],
            [
                0.9780818045671533,
                0.7887270401284281,
                -0.8008767609960616,
                0.297969975932604,
                0.06367456467090804
            ],
            [
                0.2403178242842312,
                -0.32449439016556636,
                -0.5534927158751775,
                -0.7274375998906901,
                -0.7133092014183482
            ],
            [
                -0.19049101565540377,
                -0.5378266708295143,
                0.2092877447272946,
                0.12697216010991047,
                -0.6065128368075762
            ],
            [
                -0.0891386379298411,
                -0.9939632164718928,
                0.47146236048994844,
                -0.08473578134434828,
                0.15714957832691853
            ],
            [
                0.6002233424173572,
                0.12509522268828707,
                -1.0022452887018098,
                -0.05106013465436895,
                0.832976538459686
            ],
            [
                0.9372783942953298,
                -0.4082971014230683,
                0.024726152560675896,
                0.22415335697651284,
                -0.18108764726510684
            ],
            [
                0.16313943052863666,
                0.05460878732986929,
                0.06883191441871839,
                -0.5820146901430765,
                0.1666577607643247
            ],
            [
                0.2252371374921048,
                -0.16686204574189958,
                0.6657433952533351,
                -0.027127900136617096,
                0.2137758422045181
            ],
            [
                0.9657043910975233,
                0.2202256021174008,
                -0.502441214836064,
                0.14563124324283133,
                0.08799281752056204
            ],
            [
                0.510249340590771,
                -0.38871306920622484,
                -0.2740476735971812,
                1.189497801902067,
                -0.2193952307992672
            ],
            [
                0.5861705699820687,
                0.8584166878398731,
                0.6375721431369838,
                -0.1774838775436982,
                0.21926649767851725
            ],
            [
                -0.22570021472152302,
                0.28509215309291247,
                0.40685291396916234,
                -0.7523578886260798,
                -0.847357795041936
            ],
            [
                -0.14002825475238745,
                -0.14040334877386174,
                -0.7514328784022131,
                0.3739832434441328,
                -0.6945447694074524
            ],
            [
                0.3118472226981494,
                -0.618980966624087,
                0.9259703124986085,
                0.9573885249263026,
                -0.20216328804680606
            ],
            [
                1.0131264321291276,
                -0.9809366823321568,
                0.715377763425834,
                -0.2668194712636512,
                0.014010741961855049
            ],
            [
                -0.8686960261083546,
                -0.7526962167820465,
                0.9749022211891472,
                0.09659798155081399,
                -0.21795202694763263
            ],
            [
                -0.3578877438652912,
                0.7152790332182664,
                0.7593828819461086,
                -0.9438269169510853,
                -0.39818880468858264
            ],
            [
                -0.7570478384638094,
                -0.2370009546666564,
                -0.694366180045962,
                0.01675870488851668,
                0.509208513225114
            ],
            [
                0.17024106244710568,
                -0.1839701789647841,
                0.3978458170628498,
                0.4374752784411179,
                -0.7807978582084888
            ],
            [
                0.620543854777343,
                -0.473721187699371,
                0.9229651935391195,
                0.5446845874968153,
                -0.5370714389724843
            ],
            [
                0.5384608142449443,
                -0.8168694448255612,
                0.07161905881330898,
                0.2983212287458889,
                0.05802410159665613
            ],
            [
                0.6006837965864527,
                0.8601630715043627,
                -0.2572033754586187,
                -0.20800689799163358,
                0.8452846988570533
            ],
            [
                0.20466943929902184,
                -0.6437921921560924,
                -0.3317890763093517,
                0.28827357066938203,
                0.4634086072479105
            ],
            [
                0.006122486802499126,
                0.7990578166594587,
                0.7443888666389549,
                1.016825147340016,
                -0.36696165219880633
            ],
            [
                0.6206829819831208,
                -0.3406232391217008,
                0.8293195931096617,
                -1.049814470196539,
                -1.0987191228387652
            ],
            [
                -0.5150507233995505,
                0.6121445826134235,
                -0.46536837661338537,
                -0.17493195459989916,
                -0.8377790292531395
            ],
            [
                -0.012791931634458464,
                -0.08578672287012257,
                -0.18010008654940535,
                0.24007907526618344,
                -0.6352009513170596
            ],
            [
                -0.2277954761186836,
                0.7304771628841775,
                1.412616499720472,
                1.4459670984649386,
                1.533329929004598
            ],
            [
                -0.13825414237434033,
                0.3604915909863484,
                -0.12353102387823696,
                -0.8439048213968785,
                -0.04326376168912428
            ],
            [
                1.0160646531733988,
                0.22798355883132104,
                0.42027988354728274,
                -0.0585815817595935,
                -0.43097683326471464
            ],
            [
                0.7409055998900529,
                0.07580830297091304,
                0.31976376909362747,
                -0.6080984635380989,
                -0.5435233844346178
            ],
            [
                0.6941780953732852,
                -0.3908069984706417,
                -0.5013180966782977,
                1.1868928975090187,
                0.5293180671121068
            ],
            [
                -0.0956635116215274,
                -0.3924427482473454,
                0.6481218758829902,
                0.20381924775124077,
                -0.337535250379361
            ],
            [
                -0.6423549107433514,
                0.7271192625342539,
                0.7472191587869734,
                0.9467576121215633,
                0.4992060339741479
            ]
        ],
        [
            [
                -0.15259289249710314,
                -0.0843954067338522,
                0.032868000679814095,
                0.05632288780489851
            ],
            [
                -0.2282227122604297,
                0.9440629337712785,
                0.6498077299667303,
                0.19063311913990405
            ],
            [
                0.8222817531036514,
                -0.5788081768140378,
                0.4657062501096572,
                -0.9191065166987271
            ],
            [
                0.6624905503356892,
                0.19123060862010433,
                0.3024270692219164,
                0.8313939476219104
            ],
            [
                0.6470590096994892,
                0.1686427531467561,
                0.9653349493237533,
                0.20040648949082926
            ]
        ],
        [
            [
                0.19736231843387114,
                0.43557961870237105,
                0.7603521648955482
            ],
            [
                -0.7743927599540239,
                -1.0060929344333343,
                -0.48598656652888517
            ],
            [
                0.5821625945440376,
                0.7355648902250839,
                0.7661070050577365
            ],
            [
                0.04402725243945078,
                -0.09299732106812303,
                0.8055772591212343
            ]
        ],
        [
            [
                -0.4667679722029968,
                -0.629057913488578
            ],
            [
                -1.079735360670023,
                0.22883420727961984
            ],
            [
                -0.10946684586393743,
                -0.7480367798730525
            ]
        ],
        [
            [
                -0.5931983133301678
            ],
            [
                -0.08695681396419347
            ]
        ]
    ]
}